digraph Tree {
node [shape=box, style="filled, rounded", color="black", fontname="helvetica"] ;
edge [fontname="helvetica"] ;
<<<<<<< HEAD
0 [label="Age <= 0.285\ngini = 0.5\nsamples = 1566\nvalue = [766, 800]\nclass = 1", fillcolor="#f7fbfe"] ;
1 [label="Age <= 0.063\ngini = 0.358\nsamples = 999\nvalue = [766, 233]\nclass = 0", fillcolor="#eda775"] ;
0 -> 1 [labeldistance=2.5, labelangle=45, headlabel="True"] ;
2 [label="Calcium Intake_Low <= 0.5\ngini = 0.236\nsamples = 491\nvalue = [424, 67]\nclass = 0", fillcolor="#e99558"] ;
1 -> 2 ;
3 [label="Age <= 0.021\ngini = 0.192\nsamples = 233\nvalue = [208, 25]\nclass = 0", fillcolor="#e89051"] ;
2 -> 3 ;
4 [label="Vitamin D Intake_Sufficient <= 0.5\ngini = 0.112\nsamples = 117\nvalue = [110, 7]\nclass = 0", fillcolor="#e78946"] ;
3 -> 4 ;
5 [label="gini = 0.0\nsamples = 54\nvalue = [54, 0]\nclass = 0", fillcolor="#e58139"] ;
4 -> 5 ;
6 [label="gini = 0.198\nsamples = 63\nvalue = [56, 7]\nclass = 0", fillcolor="#e89152"] ;
4 -> 6 ;
7 [label="Body Weight_Underweight <= 0.5\ngini = 0.262\nsamples = 116\nvalue = [98, 18]\nclass = 0", fillcolor="#ea985d"] ;
3 -> 7 ;
8 [label="gini = 0.346\nsamples = 63\nvalue = [49, 14]\nclass = 0", fillcolor="#eca572"] ;
7 -> 8 ;
9 [label="gini = 0.14\nsamples = 53\nvalue = [49, 4]\nclass = 0", fillcolor="#e78b49"] ;
7 -> 9 ;
10 [label="Age <= 0.007\ngini = 0.273\nsamples = 258\nvalue = [216, 42]\nclass = 0", fillcolor="#ea9a5f"] ;
2 -> 10 ;
11 [label="Prior Fractures <= 0.5\ngini = 0.355\nsamples = 65\nvalue = [50, 15]\nclass = 0", fillcolor="#eda774"] ;
10 -> 11 ;
12 [label="gini = 0.18\nsamples = 30\nvalue = [27, 3]\nclass = 0", fillcolor="#e88f4f"] ;
11 -> 12 ;
13 [label="gini = 0.451\nsamples = 35\nvalue = [23, 12]\nclass = 0", fillcolor="#f3c3a0"] ;
11 -> 13 ;
14 [label="Smoking <= 0.5\ngini = 0.241\nsamples = 193\nvalue = [166, 27]\nclass = 0", fillcolor="#e99559"] ;
10 -> 14 ;
15 [label="gini = 0.313\nsamples = 108\nvalue = [87, 21]\nclass = 0", fillcolor="#eb9f69"] ;
14 -> 15 ;
16 [label="gini = 0.131\nsamples = 85\nvalue = [79, 6]\nclass = 0", fillcolor="#e78b48"] ;
14 -> 16 ;
17 [label="Age <= 0.16\ngini = 0.44\nsamples = 508\nvalue = [342, 166]\nclass = 0", fillcolor="#f2be99"] ;
1 -> 17 ;
18 [label="Age <= 0.146\ngini = 0.388\nsamples = 266\nvalue = [196, 70]\nclass = 0", fillcolor="#eeae80"] ;
17 -> 18 ;
19 [label="Age <= 0.118\ngini = 0.455\nsamples = 166\nvalue = [108, 58]\nclass = 0", fillcolor="#f3c5a3"] ;
18 -> 19 ;
20 [label="gini = 0.419\nsamples = 154\nvalue = [108, 46]\nclass = 0", fillcolor="#f0b78d"] ;
19 -> 20 ;
21 [label="gini = 0.0\nsamples = 12\nvalue = [0, 12]\nclass = 1", fillcolor="#399de5"] ;
19 -> 21 ;
22 [label="Smoking <= 0.5\ngini = 0.211\nsamples = 100\nvalue = [88, 12]\nclass = 0", fillcolor="#e99254"] ;
18 -> 22 ;
23 [label="gini = 0.3\nsamples = 49\nvalue = [40, 9]\nclass = 0", fillcolor="#eb9d66"] ;
22 -> 23 ;
24 [label="gini = 0.111\nsamples = 51\nvalue = [48, 3]\nclass = 0", fillcolor="#e78945"] ;
22 -> 24 ;
25 [label="Age <= 0.215\ngini = 0.479\nsamples = 242\nvalue = [146, 96]\nclass = 0", fillcolor="#f6d4bb"] ;
17 -> 25 ;
26 [label="gini = 0.0\nsamples = 43\nvalue = [0, 43]\nclass = 1", fillcolor="#399de5"] ;
25 -> 26 ;
27 [label="Age <= 0.243\ngini = 0.391\nsamples = 199\nvalue = [146, 53]\nclass = 0", fillcolor="#eeaf81"] ;
25 -> 27 ;
28 [label="gini = 0.275\nsamples = 140\nvalue = [117, 23]\nclass = 0", fillcolor="#ea9a60"] ;
27 -> 28 ;
29 [label="gini = 0.5\nsamples = 59\nvalue = [29, 30]\nclass = 1", fillcolor="#f8fcfe"] ;
27 -> 29 ;
30 [label="gini = 0.0\nsamples = 567\nvalue = [0, 567]\nclass = 1", fillcolor="#399de5"] ;
0 -> 30 [labeldistance=2.5, labelangle=-45, headlabel="False"] ;
=======
0 [label="Age <= 0.285\ngini = 0.5\nsamples = 1566\nvalue = [769, 797]\nclass = 1", fillcolor="#f8fcfe"] ;
1 [label="Age <= 0.063\ngini = 0.361\nsamples = 1007\nvalue = [769, 238]\nclass = 0", fillcolor="#eda876"] ;
0 -> 1 [labeldistance=2.5, labelangle=45, headlabel="True"] ;
2 [label="Smoking <= 0.5\ngini = 0.231\nsamples = 502\nvalue = [435, 67]\nclass = 0", fillcolor="#e99457"] ;
1 -> 2 ;
3 [label="gini = 0.268\nsamples = 245\nvalue = [206, 39]\nclass = 0", fillcolor="#ea995e"] ;
2 -> 3 ;
4 [label="gini = 0.194\nsamples = 257\nvalue = [229, 28]\nclass = 0", fillcolor="#e89051"] ;
2 -> 4 ;
5 [label="Age <= 0.243\ngini = 0.448\nsamples = 505\nvalue = [334, 171]\nclass = 0", fillcolor="#f2c29e"] ;
1 -> 5 ;
6 [label="gini = 0.424\nsamples = 445\nvalue = [309, 136]\nclass = 0", fillcolor="#f0b890"] ;
5 -> 6 ;
7 [label="gini = 0.486\nsamples = 60\nvalue = [25, 35]\nclass = 1", fillcolor="#c6e3f8"] ;
5 -> 7 ;
8 [label="gini = 0.0\nsamples = 559\nvalue = [0, 559]\nclass = 1", fillcolor="#399de5"] ;
0 -> 8 [labeldistance=2.5, labelangle=-45, headlabel="False"] ;
>>>>>>> 90dba1a8d2a41ed1bbb3305f94c4c6e682193dee
}